=== Run information ===

Scheme:       weka.classifiers.trees.J48 -C 0.25 -M 2
Relation:     1.3.2-weka.filters.unsupervised.attribute.Remove-R1,9,15,24-26,37,40,61,80,88,103
Instances:    62
Attributes:   93
              Acir Gurgacz - PDT/RO
              Aécio Neves - PSDB/MG
              Airton Sandoval - PMDB/SP
              Aloysio Nunes Ferreira - PSDB/SP
              Alvaro Dias - PSDB/PR
              Ana Amélia - PP/RS
              Ângela Portela - PT/RR
              Antonio Anastasia - PSDB/MG
              Antonio Carlos Valadares - PSB/SE
              Armando Monteiro - PTB/PE
              Ataídes Oliveira - PSDB/TO
              Benedito de Lira - PP/AL
              Cássio Cunha Lima - PSDB/PB
              Cidinho Santos - PR/MT
              Ciro Nogueira - PP/PI
              Cristovam Buarque - PDT/DF
              Dalirio Beber - PSDB/SC
              Dário Berger - PMDB/SC
              Davi Alcolumbre - DEM/AP
              Deca - PSDB/PB
              Edison Lobão - PMDB/MA
              Eduardo Amorim - PSC/SE
              Eduardo Braga - PMDB/AM
              Eduardo Lopes - PRB/RJ
              Elber Batalha - PSB/SE
              Elmano Férrer - PTB/PI
              Eunício Oliveira - PMDB/CE
              Fátima Bezerra - PT/RN
              Fernando Bezerra Coelho - PSB/PE
              Fernando Collor - PTB/AL
              Flexa Ribeiro - PSDB/PA
              Garibaldi Alves Filho - PMDB/RN
              Gladson Cameli - PP/AC
              Gleisi Hoffmann - PT/PR
              Hélio José - PSD/DF
              Humberto Costa - PT/PE
              Ivo Cassol - PP/RO
              Jader Barbalho - PMDB/PA
              João Alberto Souza - PMDB/MA
              João Capiberibe - PSB/AP
              Jorge Viana - PT/AC
              José Agripino - DEM/RN
              José Aníbal - PSDB/SP
              José Maranhão - PMDB/PB
              José Medeiros - PPS/MT
              José Pimentel - PT/CE
              José Serra - PSDB/SP
              Kátia Abreu - PMDB/TO
              Lasier Martins - PDT/RS
              Lídice da Mata - PSB/BA
              Lindbergh Farias - PT/RJ
              Lúcia Vânia - PSDB/GO
              Magno Malta - PR/ES
              Marcelo Crivella - PRB/RJ
              Maria do Carmo Alves - DEM/SE
              Marta Suplicy - PT/SP
              Omar Aziz - PSD/AM
              Otto Alencar - PSD/BA
              Pastor Valadares - PDT/RO
              Paulo Bauer - PSDB/SC
              Paulo Paim - PT/RS
              Paulo Rocha - PT/PA
              Pedro Chaves - PSC/MS
              Pinto Itamaraty - PSDB/MA
              Raimundo Lira - PMDB/PB
              Randolfe Rodrigues - PSOL/AP
              Regina Sousa - PT/PI
              Reguffe - PDT/DF
              Renan Calheiros - PMDB/AL
              Ricardo Ferraço - PMDB/ES
              Roberto Muniz - PP/BA
              Roberto Requião - PMDB/PR
              Roberto Rocha - PSB/MA
              Romário - PSB/RJ
              Romero Jucá - PMDB/RR
              Ronaldo Caiado - DEM/GO
              Rose de Freitas - PMDB/ES
              Sérgio de Castro - PDT/ES
              Sérgio Petecão - PSD/AC
              Simone Tebet - PMDB/MS
              Tasso Jereissati - PSDB/CE
              Telmário Mota - PDT/RR
              Thieres Pinto - PTB/RR
              Valdir Raupp - PMDB/RO
              Vanessa Grazziotin - PCdoB/AM
              Vicentinho Alves - PR/TO
              Virginio de Carvalho - PSC/SE
              Waldemir Moka - PMDB/MS
              Walter Pinheiro - PT/BA
              Wellington Fagundes - PR/MT
              Wilder Morais - DEM/GO
              Zeze Perrella - PDT/MG
              RESULTADO
Test mode:    10-fold cross-validation

=== Classifier model (full training set) ===

J48 pruned tree
------------------

Benedito de Lira - PP/AL = Sim
|   Pedro Chaves - PSC/MS = Sim: Aprovado (25.17)
|   Pedro Chaves - PSC/MS = Não: Aprovado (3.0)
|   Pedro Chaves - PSC/MS = P-NRV: Aprovado (2.0)
|   Pedro Chaves - PSC/MS = Ncom: Rejeitado (6.0)
Benedito de Lira - PP/AL = Não: Rejeitado (25.83/1.83)

Number of Leaves  : 	5

Size of the tree : 	7


Time taken to build model: 0 seconds

=== Stratified cross-validation ===
=== Summary ===

Correctly Classified Instances          59               95.1613 %
Incorrectly Classified Instances         3                4.8387 %
Kappa statistic                          0.903 
Mean absolute error                      0.0838
Root mean squared error                  0.1858
Relative absolute error                 16.7599 %
Root relative squared error             37.1569 %
Total Number of Instances               62     

=== Detailed Accuracy By Class ===

                 TP Rate  FP Rate  Precision  Recall   F-Measure  MCC      ROC Area  PRC Area  Class
                 0,969    0,067    0,939      0,969    0,954      0,903    0,977     0,987     Aprovado
                 0,933    0,031    0,966      0,933    0,949      0,903    0,977     0,959     Rejeitado
Weighted Avg.    0,952    0,050    0,952      0,952    0,952      0,903    0,977     0,973     

=== Confusion Matrix ===

  a  b   <-- classified as
 31  1 |  a = Aprovado
  2 28 |  b = Rejeitado

